digraph Tree {
node [shape=box, style="filled", color="black", fontname="helvetica"] ;
edge [fontname="helvetica"] ;
0 [label="odor <= 2.5\ngini = 0.499\nsamples = 6093\nvalue = [3188, 2905]\nclass = p", fillcolor="#fdf4ed"] ;
1 [label="gill-color <= 1.5\ngini = 0.274\nsamples = 3094\nvalue = [2587, 507]\nclass = p", fillcolor="#ea9a60"] ;
0 -> 1 [labeldistance=2.5, labelangle=45, headlabel="True"] ;
2 [label="gini = 0.0\nsamples = 423\nvalue = [0, 423]\nclass = e", fillcolor="#399de5"] ;
1 -> 2 ;
3 [label="spore-print-color <= 4.5\ngini = 0.061\nsamples = 2671\nvalue = [2587, 84]\nclass = p", fillcolor="#e6853f"] ;
1 -> 3 ;
4 [label="veil-color <= 3.5\ngini = 0.024\nsamples = 2515\nvalue = [2484, 31]\nclass = p", fillcolor="#e5833b"] ;
3 -> 4 ;
5 [label="gini = 0.02\nsamples = 2509\nvalue = [2484, 25]\nclass = p", fillcolor="#e5823b"] ;
4 -> 5 ;
6 [label="gini = 0.0\nsamples = 6\nvalue = [0, 6]\nclass = e", fillcolor="#399de5"] ;
4 -> 6 ;
7 [label="habitat <= 3.5\ngini = 0.449\nsamples = 156\nvalue = [103, 53]\nclass = p", fillcolor="#f2c29f"] ;
3 -> 7 ;
8 [label="gini = 0.0\nsamples = 103\nvalue = [103, 0]\nclass = p", fillcolor="#e58139"] ;
7 -> 8 ;
9 [label="gini = 0.0\nsamples = 53\nvalue = [0, 53]\nclass = e", fillcolor="#399de5"] ;
7 -> 9 ;
10 [label="stalk-root <= 3.5\ngini = 0.32\nsamples = 2999\nvalue = [601, 2398]\nclass = e", fillcolor="#6bb6ec"] ;
0 -> 10 [labeldistance=2.5, labelangle=-45, headlabel="False"] ;
11 [label="gill-spacing <= 1.5\ngini = 0.065\nsamples = 2454\nvalue = [83, 2371]\nclass = e", fillcolor="#40a0e6"] ;
10 -> 11 ;
12 [label="gini = 0.0\nsamples = 2301\nvalue = [0, 2301]\nclass = e", fillcolor="#399de5"] ;
11 -> 12 ;
13 [label="bruises <= 1.5\ngini = 0.496\nsamples = 153\nvalue = [83, 70]\nclass = p", fillcolor="#fbebe0"] ;
11 -> 13 ;
14 [label="gini = 0.0\nsamples = 70\nvalue = [0, 70]\nclass = e", fillcolor="#399de5"] ;
13 -> 14 ;
15 [label="gini = 0.0\nsamples = 83\nvalue = [83, 0]\nclass = p", fillcolor="#e58139"] ;
13 -> 15 ;
16 [label="stalk-color-below-ring <= 3.5\ngini = 0.094\nsamples = 545\nvalue = [518, 27]\nclass = p", fillcolor="#e68843"] ;
10 -> 16 ;
17 [label="gini = 0.0\nsamples = 518\nvalue = [518, 0]\nclass = p", fillcolor="#e58139"] ;
16 -> 17 ;
18 [label="gini = 0.0\nsamples = 27\nvalue = [0, 27]\nclass = e", fillcolor="#399de5"] ;
16 -> 18 ;
}